digraph Tree {
node [shape=box, fontname="helvetica"] ;
edge [fontname="helvetica"] ;
0 [label="total day minutes <= 0.754\ngini = 0.248\nsamples = 2499\nvalue = [2137, 362]"] ;
1 [label="customer service calls <= 0.389\ngini = 0.201\nsamples = 2337\nvalue = [2072, 265]"] ;
0 -> 1 [labeldistance=2.5, labelangle=45, headlabel="True"] ;
2 [label="total charge <= 0.711\ngini = 0.144\nsamples = 2155\nvalue = [1987, 168]"] ;
1 -> 2 ;
3 [label="international plan <= 0.5\ngini = 0.113\nsamples = 2091\nvalue = [1965, 126]"] ;
2 -> 3 ;
4 [label="total charge <= 0.701\ngini = 0.058\nsamples = 1904\nvalue = [1847, 57]"] ;
3 -> 4 ;
5 [label="total intl minutes <= 0.907\ngini = 0.055\nsamples = 1888\nvalue = [1835, 53]"] ;
4 -> 5 ;
6 [label="total eve minutes <= 0.905\ngini = 0.054\nsamples = 1885\nvalue = [1833, 52]"] ;
5 -> 6 ;
7 [label="gini = 0.053\nsamples = 1882\nvalue = [1831, 51]"] ;
6 -> 7 ;
8 [label="gini = 0.444\nsamples = 3\nvalue = [2, 1]"] ;
6 -> 8 ;
9 [label="gini = 0.444\nsamples = 3\nvalue = [2, 1]"] ;
5 -> 9 ;
10 [label="total intl minutes <= 0.567\ngini = 0.375\nsamples = 16\nvalue = [12, 4]"] ;
4 -> 10 ;
11 [label="gini = 0.0\nsamples = 12\nvalue = [12, 0]"] ;
10 -> 11 ;
12 [label="gini = 0.0\nsamples = 4\nvalue = [0, 4]"] ;
10 -> 12 ;
13 [label="total intl calls <= 0.125\ngini = 0.466\nsamples = 187\nvalue = [118, 69]"] ;
3 -> 13 ;
14 [label="gini = 0.0\nsamples = 37\nvalue = [0, 37]"] ;
13 -> 14 ;
15 [label="total intl charge <= 0.655\ngini = 0.336\nsamples = 150\nvalue = [118, 32]"] ;
13 -> 15 ;
16 [label="total night charge <= 0.165\ngini = 0.017\nsamples = 119\nvalue = [118, 1]"] ;
15 -> 16 ;
17 [label="gini = 0.0\nsamples = 1\nvalue = [0, 1]"] ;
16 -> 17 ;
18 [label="gini = 0.0\nsamples = 118\nvalue = [118, 0]"] ;
16 -> 18 ;
19 [label="gini = 0.0\nsamples = 31\nvalue = [0, 31]"] ;
15 -> 19 ;
20 [label="total intl charge <= 0.393\ngini = 0.451\nsamples = 64\nvalue = [22, 42]"] ;
2 -> 20 ;
21 [label="total eve calls <= 0.468\ngini = 0.219\nsamples = 8\nvalue = [7, 1]"] ;
20 -> 21 ;
22 [label="gini = 0.0\nsamples = 1\nvalue = [0, 1]"] ;
21 -> 22 ;
23 [label="gini = 0.0\nsamples = 7\nvalue = [7, 0]"] ;
21 -> 23 ;
24 [label="number vmail messages <= 0.108\ngini = 0.392\nsamples = 56\nvalue = [15, 41]"] ;
20 -> 24 ;
25 [label="gini = 0.0\nsamples = 41\nvalue = [0, 41]"] ;
24 -> 25 ;
26 [label="gini = 0.0\nsamples = 15\nvalue = [15, 0]"] ;
24 -> 26 ;
27 [label="total charge <= 0.47\ngini = 0.498\nsamples = 182\nvalue = [85, 97]"] ;
1 -> 27 ;
28 [label="total charge <= 0.464\ngini = 0.065\nsamples = 89\nvalue = [3, 86]"] ;
27 -> 28 ;
29 [label="gini = 0.0\nsamples = 80\nvalue = [0, 80]"] ;
28 -> 29 ;
30 [label="total intl charge <= 0.557\ngini = 0.444\nsamples = 9\nvalue = [3, 6]"] ;
28 -> 30 ;
31 [label="gini = 0.0\nsamples = 6\nvalue = [0, 6]"] ;
30 -> 31 ;
32 [label="gini = 0.0\nsamples = 3\nvalue = [3, 0]"] ;
30 -> 32 ;
33 [label="total minutes <= 0.669\ngini = 0.209\nsamples = 93\nvalue = [82, 11]"] ;
27 -> 33 ;
34 [label="total charge <= 0.476\ngini = 0.075\nsamples = 77\nvalue = [74, 3]"] ;
33 -> 34 ;
35 [label="total charge <= 0.475\ngini = 0.408\nsamples = 7\nvalue = [5, 2]"] ;
34 -> 35 ;
36 [label="gini = 0.0\nsamples = 5\nvalue = [5, 0]"] ;
35 -> 36 ;
37 [label="gini = 0.0\nsamples = 2\nvalue = [0, 2]"] ;
35 -> 37 ;
38 [label="international plan <= 0.5\ngini = 0.028\nsamples = 70\nvalue = [69, 1]"] ;
34 -> 38 ;
39 [label="gini = 0.0\nsamples = 65\nvalue = [65, 0]"] ;
38 -> 39 ;
40 [label="gini = 0.32\nsamples = 5\nvalue = [4, 1]"] ;
38 -> 40 ;
41 [label="total eve calls <= 0.597\ngini = 0.5\nsamples = 16\nvalue = [8, 8]"] ;
33 -> 41 ;
42 [label="gini = 0.0\nsamples = 6\nvalue = [0, 6]"] ;
41 -> 42 ;
43 [label="total intl minutes <= 0.472\ngini = 0.32\nsamples = 10\nvalue = [8, 2]"] ;
41 -> 43 ;
44 [label="gini = 0.0\nsamples = 2\nvalue = [0, 2]"] ;
43 -> 44 ;
45 [label="gini = 0.0\nsamples = 8\nvalue = [8, 0]"] ;
43 -> 45 ;
46 [label="total charge <= 0.7\ngini = 0.48\nsamples = 162\nvalue = [65, 97]"] ;
0 -> 46 [labeldistance=2.5, labelangle=-45, headlabel="False"] ;
47 [label="total intl calls <= 0.525\ngini = 0.054\nsamples = 36\nvalue = [35, 1]"] ;
46 -> 47 ;
48 [label="gini = 0.0\nsamples = 35\nvalue = [35, 0]"] ;
47 -> 48 ;
49 [label="gini = 0.0\nsamples = 1\nvalue = [0, 1]"] ;
47 -> 49 ;
50 [label="number vmail messages <= 0.127\ngini = 0.363\nsamples = 126\nvalue = [30, 96]"] ;
46 -> 50 ;
51 [label="total minutes <= 0.563\ngini = 0.041\nsamples = 95\nvalue = [2, 93]"] ;
50 -> 51 ;
52 [label="gini = 0.0\nsamples = 1\nvalue = [1, 0]"] ;
51 -> 52 ;
53 [label="total eve minutes <= 0.39\ngini = 0.021\nsamples = 94\nvalue = [1, 93]"] ;
51 -> 53 ;
54 [label="gini = 0.5\nsamples = 2\nvalue = [1, 1]"] ;
53 -> 54 ;
55 [label="gini = 0.0\nsamples = 92\nvalue = [0, 92]"] ;
53 -> 55 ;
56 [label="international plan <= 0.5\ngini = 0.175\nsamples = 31\nvalue = [28, 3]"] ;
50 -> 56 ;
57 [label="gini = 0.0\nsamples = 27\nvalue = [27, 0]"] ;
56 -> 57 ;
58 [label="gini = 0.375\nsamples = 4\nvalue = [1, 3]"] ;
56 -> 58 ;
}